Language model created by QuickLM on Fri Feb  4 01:35:32 EST 2022
Copyright (c) 1996-2010 Carnegie Mellon University and Alexander I. Rudnicky

The model is in standard ARPA format, designed by Doug Paul while he was at MITRE.

The code that was used to produce this language model is available in Open Source.
Please visit http://www.speech.cs.cmu.edu/tools/ for more information

The (fixed) discount mass is 0.5. The backoffs are computed using the ratio method.
This model based on a corpus of 153 sentences and 141 words

\data\
ngram 1=141
ngram 2=303
ngram 3=316

\1-grams:
-0.9286 </s> -0.3010
-0.9286 <s> -0.2307
-2.8122 A -0.3004
-2.8122 ADDRESS -0.2466
-3.1133 AFTER -0.3004
-3.1133 ALL -0.2466
-3.1133 ARE -0.3007
-3.1133 ASSISTANT -0.2466
-2.8122 AUDIO -0.2466
-2.8122 BACK -0.2462
-3.1133 BACKSPACE -0.2466
-3.1133 BOOKMARKS -0.2466
-3.1133 BREAK -0.2466
-2.8122 BRIGHTNESS -0.2963
-2.8122 BROWSER -0.2466
-2.8122 BYE -0.2990
-3.1133 CANCEL -0.2466
-3.1133 CLEAR -0.2997
-2.6362 CLICK -0.2466
-2.1133 CLOSE -0.2895
-3.1133 CLOSED -0.2977
-2.8122 COMMANDS -0.2428
-3.1133 COPY -0.2466
-3.1133 CUT -0.2466
-3.1133 DATE -0.2466
-2.5112 DAY -0.2431
-3.1133 DELETE -0.2466
-3.1133 DESKTOP -0.2466
-3.1133 DIAGNOSTICS -0.2466
-2.2682 DOWN -0.2466
-3.1133 EDIT -0.2466
-2.8122 EDITOR -0.2466
-2.4143 EMAIL -0.2458
-2.5112 END -0.2443
-3.1133 ENTER -0.2466
-3.1133 ESCAPE -0.2466
-3.1133 EXIT -0.2997
-3.1133 EYE -0.3007
-2.1133 FILE -0.2466
-2.8122 FILES -0.2466
-3.1133 FIND -0.3000
-3.1133 FLIP -0.2466
-3.1133 FULL -0.3007
-3.1133 FUTURE -0.3000
-3.1133 GOOD -0.3004
-2.1590 GOTO -0.2902
-2.8122 HELLO -0.2443
-3.1133 HI -0.2990
-3.1133 HOME -0.2466
-2.8122 HOW -0.3004
-2.6362 IN -0.2428
-3.1133 INXI -0.2466
-2.1590 IS -0.2443
-2.5112 IT -0.2466
-3.1133 JOKE -0.2466
-3.1133 LANGUAGE -0.3007
-3.1133 LAUNCHER -0.2466
-2.8122 LEFT -0.2454
-2.6362 LINE -0.2466
-3.1133 MAIL -0.2466
-3.1133 MASTER -0.3004
-3.1133 MAXIMIZE -0.2994
-2.8122 ME -0.2458
-3.1133 MICROPHONE -0.2466
-3.1133 MIDDLE -0.3000
-3.1133 MINIMIZE -0.2994
-3.1133 MODEL -0.2466
-3.1133 MUCH -0.3007
-2.4143 MUSIC -0.2466
-2.8122 MUTE -0.3000
-3.1133 NETWORK -0.3004
-2.6362 NEW -0.2943
-2.6362 NEWS -0.2466
-2.8122 NEXT -0.2970
-2.3351 OF -0.2943
-3.1133 OLD -0.3007
-1.9092 OPEN -0.2833
-3.1133 OTHER -0.3007
-3.1133 OUT -0.2466
-2.2682 PAGE -0.2404
-2.8122 PASSWORD -0.2466
-3.1133 PASTE -0.2466
-3.1133 PAUSE -0.2994
-3.1133 PEE -0.3004
-2.8122 PLAY -0.2447
-1.8345 PRESS -0.2854
-2.6362 PREVIOUS -0.2953
-2.4143 READ -0.2994
-3.1133 REDO -0.2466
-3.1133 RELOAD -0.2987
-3.1133 RENAME -0.2977
-3.1133 REPEAT -0.3007
-3.1133 REPLACE -0.3000
-3.1133 RESET -0.2990
-3.1133 RETURN -0.2466
-2.8122 RIGHT -0.2454
-2.6362 RUN -0.2997
-3.1133 SAVE -0.2977
-3.1133 SCREEN -0.2466
-2.8122 SCROLL -0.2963
-2.8122 SEARCH -0.2990
-2.8122 SELECT -0.2997
-2.6362 SHOW -0.2987
-3.1133 SHUFFLE -0.2994
-3.1133 SING -0.3004
-3.1133 SONG -0.2466
-2.8122 SPEED -0.2458
-3.1133 SPIRAL -0.2466
-3.1133 START -0.2990
-2.5112 STATUS -0.2466
-2.3351 STELLA -0.2466
-3.1133 SWITCH -0.2977
-2.8122 SYSTEM -0.2450
-2.1133 TAB -0.2466
-3.1133 TABS -0.2466
-3.1133 TECHNOLOGY -0.3000
-3.1133 TELL -0.3004
-2.5112 TERMINAL -0.2466
-2.8122 TEST -0.2462
-2.8122 TEXT -0.2466
-2.8122 THE -0.2983
-2.8122 THIS -0.2980
-2.2682 TIME -0.2431
-2.8122 TOP -0.2990
-2.8122 TRACK -0.2466
-2.6362 TYPE -0.2983
-2.8122 UNDO -0.2428
-3.1133 UNMUTE -0.3004
-2.2682 UP -0.2466
-3.1133 UPDATE -0.3007
-2.8122 VOLUME -0.2963
-2.5112 WEB -0.2466
-2.2102 WHAT -0.2943
-2.8122 WHEEL -0.2963
-2.8122 WIFI -0.2963
-2.4143 WINDOW -0.2466
-3.1133 WOOD -0.2466
-3.1133 WORLD -0.3000
-3.1133 YOU? -0.2466
-3.1133 YOUTUBE -0.2466
-2.8122 ZOOM -0.2997

\2-grams:
-2.4857 <s> BACK -0.1761
-2.1847 <s> BRIGHTNESS 0.0000
-2.4857 <s> BYE 0.0000
-2.4857 <s> CLEAR 0.0000
-1.5315 <s> CLOSE 0.0000
-2.4857 <s> DAY -0.0969
-2.4857 <s> EMAIL -0.0792
-2.0086 <s> END -0.0969
-2.4857 <s> EXIT 0.0000
-2.4857 <s> EYE 0.0000
-2.4857 <s> FIND 0.0000
-2.4857 <s> FULL 0.0000
-2.4857 <s> GOOD 0.0000
-1.5315 <s> GOTO 0.0000
-2.1847 <s> HELLO 0.0000
-2.4857 <s> HI 0.0000
-2.1847 <s> HOW 0.0000
-2.4857 <s> LEFT -0.1761
-2.4857 <s> MAXIMIZE 0.0000
-2.4857 <s> MIDDLE 0.0000
-2.4857 <s> MINIMIZE 0.0000
-2.4857 <s> MUSIC 0.0000
-2.1847 <s> MUTE 0.0000
-2.1847 <s> NEW 0.0000
-2.1847 <s> NEXT 0.0000
-1.2816 <s> OPEN 0.0000
-2.0086 <s> PAGE -0.1963
-2.4857 <s> PAUSE 0.0000
-2.4857 <s> PLAY -0.1761
-1.2070 <s> PRESS -0.0000
-2.0086 <s> PREVIOUS 0.0000
-1.7868 <s> READ 0.0000
-2.4857 <s> RELOAD 0.0000
-2.4857 <s> RENAME 0.0000
-2.4857 <s> REPEAT 0.0000
-2.4857 <s> REPLACE 0.0000
-2.4857 <s> RESET 0.0000
-2.4857 <s> RIGHT -0.1761
-2.0086 <s> RUN 0.0000
-2.4857 <s> SAVE 0.0000
-2.1847 <s> SCROLL 0.0000
-2.1847 <s> SEARCH 0.0000
-2.1847 <s> SELECT 0.0000
-2.0086 <s> SHOW 0.0000
-2.4857 <s> SHUFFLE 0.0000
-2.4857 <s> SING 0.0000
-2.4857 <s> START 0.0000
-2.4857 <s> STATUS 0.0000
-2.4857 <s> STELLA 0.0000
-2.4857 <s> SWITCH 0.0000
-2.4857 <s> SYSTEM -0.1761
-2.4857 <s> TELL 0.0000
-2.4857 <s> TEST -0.1761
-2.0086 <s> TIME 0.0000
-2.1847 <s> TOP 0.0000
-2.0086 <s> TYPE 0.0000
-2.4857 <s> UNDO -0.1761
-2.4857 <s> UNMUTE 0.0000
-2.4857 <s> UPDATE 0.0000
-2.1847 <s> VOLUME 0.0000
-2.4857 <s> WEB 0.0000
-1.5826 <s> WHAT 0.0000
-2.1847 <s> WHEEL 0.0000
-2.1847 <s> WIFI 0.0000
-2.1847 <s> ZOOM 0.0000
-0.6021 A JOKE 0.0000
-0.6021 A SONG 0.0000
-0.3010 ADDRESS </s> -0.3010
-0.3010 AFTER ME -0.1761
-0.3010 ALL </s> -0.3010
-0.3010 ARE YOU? 0.0000
-0.3010 ASSISTANT </s> -0.3010
-0.3010 AUDIO </s> -0.3010
-0.6021 BACK </s> -0.3010
-0.6021 BACK FLIP 0.0000
-0.3010 BACKSPACE </s> -0.3010
-0.3010 BOOKMARKS </s> -0.3010
-0.3010 BREAK </s> -0.3010
-0.6021 BRIGHTNESS DOWN 0.0000
-0.6021 BRIGHTNESS UP 0.0000
-0.3010 BROWSER </s> -0.3010
-0.3010 BYE STELLA 0.0000
-0.3010 CANCEL </s> -0.3010
-0.3010 CLEAR TERMINAL 0.0000
-0.3010 CLICK </s> -0.3010
-1.3010 CLOSE ASSISTANT 0.0000
-1.3010 CLOSE BROWSER 0.0000
-1.3010 CLOSE EDITOR 0.0000
-1.3010 CLOSE EMAIL -0.0792
-1.3010 CLOSE OTHER 0.0000
-1.3010 CLOSE STATUS 0.0000
-1.0000 CLOSE TAB 0.0000
-1.3010 CLOSE TERMINAL 0.0000
-1.3010 CLOSE WINDOW 0.0000
-0.3010 CLOSED TAB 0.0000
-0.6021 COMMANDS </s> -0.3010
-0.6021 COMMANDS FILE 0.0000
-0.3010 COPY </s> -0.3010
-0.3010 CUT </s> -0.3010
-0.3010 DATE </s> -0.3010
-0.9031 DAY </s> -0.3010
-0.4260 DAY IS -0.0872
-0.3010 DELETE </s> -0.3010
-0.3010 DESKTOP </s> -0.3010
-0.3010 DIAGNOSTICS </s> -0.3010
-0.3010 DOWN </s> -0.3010
-0.3010 EDIT </s> -0.3010
-0.3010 EDITOR </s> -0.3010
-0.3979 EMAIL </s> -0.3010
-1.0000 EMAIL ADDRESS 0.0000
-0.9031 END </s> -0.3010
-0.4260 END OF 0.0000
-0.3010 ENTER </s> -0.3010
-0.3010 ESCAPE </s> -0.3010
-0.3010 EXIT TERMINAL 0.0000
-0.3010 EYE PEE 0.0000
-0.3010 FILE </s> -0.3010
-0.3010 FILES </s> -0.3010
-0.3010 FIND IN -0.1249
-0.3010 FLIP </s> -0.3010
-0.3010 FULL SCREEN 0.0000
-0.3010 FUTURE NEWS 0.0000
-0.3010 GOOD BYE 0.0000
-1.2553 GOTO EDIT 0.0000
-1.2553 GOTO EMAIL -0.0792
-1.2553 GOTO FILE 0.0000
-1.2553 GOTO MAIL 0.0000
-1.2553 GOTO MUSIC 0.0000
-1.2553 GOTO PLAY -0.1761
-1.2553 GOTO SYSTEM -0.1761
-1.2553 GOTO TEXT 0.0000
-1.2553 GOTO WEB 0.0000
-0.6021 HELLO </s> -0.3010
-0.6021 HELLO STELLA 0.0000
-0.3010 HI STELLA 0.0000
-0.3010 HOME </s> -0.3010
-0.6021 HOW MUCH 0.0000
-0.6021 HOW OLD 0.0000
-0.7782 IN </s> -0.3010
-0.4771 IN FILE 0.0000
-0.3010 INXI </s> -0.3010
-0.7782 IS </s> -0.3010
-0.6532 IS IT 0.0000
-0.9542 IS THE 0.0000
-0.3010 IT </s> -0.3010
-0.3010 JOKE </s> -0.3010
-0.3010 LANGUAGE MODEL 0.0000
-0.3010 LAUNCHER </s> -0.3010
-0.6021 LEFT </s> -0.3010
-0.6021 LEFT CLICK 0.0000
-0.3010 LINE </s> -0.3010
-0.3010 MAIL </s> -0.3010
-0.3010 MASTER PASSWORD 0.0000
-0.3010 MAXIMIZE WINDOW 0.0000
-0.6021 ME </s> -0.3010
-0.6021 ME A -0.1761
-0.3010 MICROPHONE </s> -0.3010
-0.3010 MIDDLE CLICK 0.0000
-0.3010 MINIMIZE WINDOW 0.0000
-0.3010 MODEL </s> -0.3010
-0.3010 MUCH WOOD 0.0000
-0.3010 MUSIC </s> -0.3010
-0.6021 MUTE AUDIO 0.0000
-0.6021 MUTE MICROPHONE 0.0000
-0.3010 NETWORK SPEED -0.1761
-0.7782 NEW FILE 0.0000
-0.4771 NEW TAB 0.0000
-0.3010 NEWS </s> -0.3010
-0.6021 NEXT TAB 0.0000
-0.6021 NEXT TRACK 0.0000
-0.7782 OF FILE 0.0000
-0.7782 OF LINE 0.0000
-0.7782 OF PAGE -0.1549
-0.3010 OLD ARE 0.0000
-1.5051 OPEN BOOKMARKS 0.0000
-1.5051 OPEN BROWSER 0.0000
-1.5051 OPEN CLOSED 0.0000
-1.2041 OPEN COMMANDS 0.0000
-1.5051 OPEN EDITOR 0.0000
-1.5051 OPEN EMAIL -0.0792
-1.5051 OPEN FILE 0.0000
-1.5051 OPEN FILES 0.0000
-1.5051 OPEN LAUNCHER 0.0000
-1.5051 OPEN NEW -0.1249
-1.5051 OPEN STATUS 0.0000
-1.5051 OPEN TAB 0.0000
-1.5051 OPEN TERMINAL 0.0000
-1.5051 OPEN WEB 0.0000
-1.5051 OPEN YOUTUBE 0.0000
-0.3010 OTHER TABS 0.0000
-0.3010 OUT </s> -0.3010
-0.5441 PAGE </s> -0.3010
-1.1461 PAGE BACK -0.1761
-1.1461 PAGE DOWN 0.0000
-1.1461 PAGE UP 0.0000
-0.3010 PASSWORD </s> -0.3010
-0.3010 PASTE </s> -0.3010
-0.3010 PAUSE MUSIC 0.0000
-0.3010 PEE ADDRESS 0.0000
-0.6021 PLAY </s> -0.3010
-0.6021 PLAY MUSIC 0.0000
-1.5798 PRESS BACKSPACE 0.0000
-1.5798 PRESS BREAK 0.0000
-1.5798 PRESS CANCEL 0.0000
-1.5798 PRESS COPY 0.0000
-1.5798 PRESS CUT 0.0000
-1.5798 PRESS DELETE 0.0000
-1.5798 PRESS DOWN 0.0000
-1.5798 PRESS END -0.2430
-1.5798 PRESS ENTER 0.0000
-1.5798 PRESS ESCAPE 0.0000
-1.5798 PRESS HOME 0.0000
-1.5798 PRESS LEFT -0.1761
-1.5798 PRESS PASTE 0.0000
-1.5798 PRESS REDO 0.0000
-1.5798 PRESS RETURN 0.0000
-1.5798 PRESS RIGHT -0.1761
-1.5798 PRESS TAB 0.0000
-1.5798 PRESS UNDO -0.1761
-1.5798 PRESS UP 0.0000
-0.7782 PREVIOUS TAB 0.0000
-0.7782 PREVIOUS TRACK 0.0000
-0.7782 PREVIOUS WINDOW 0.0000
-1.0000 READ FUTURE 0.0000
-1.0000 READ TECHNOLOGY 0.0000
-0.6990 READ THIS 0.0000
-1.0000 READ WORLD 0.0000
-0.3010 REDO </s> -0.3010
-0.3010 RELOAD PAGE -0.1549
-0.3010 RENAME FILE 0.0000
-0.3010 REPEAT AFTER 0.0000
-0.3010 REPLACE IN -0.1249
-0.3010 RESET STELLA 0.0000
-0.3010 RETURN </s> -0.3010
-0.6021 RIGHT </s> -0.3010
-0.6021 RIGHT CLICK 0.0000
-0.7782 RUN DIAGNOSTICS 0.0000
-0.7782 RUN INXI 0.0000
-0.7782 RUN SPEED -0.1761
-0.3010 SAVE FILE 0.0000
-0.3010 SCREEN </s> -0.3010
-0.6021 SCROLL DOWN 0.0000
-0.6021 SCROLL UP 0.0000
-0.6021 SEARCH FILES 0.0000
-0.6021 SEARCH WEB 0.0000
-0.6021 SELECT ALL 0.0000
-0.6021 SELECT LINE 0.0000
-0.7782 SHOW DESKTOP 0.0000
-0.7782 SHOW SPIRAL 0.0000
-0.7782 SHOW WINDOW 0.0000
-0.3010 SHUFFLE MUSIC 0.0000
-0.3010 SING A -0.1761
-0.3010 SONG </s> -0.3010
-0.6021 SPEED </s> -0.3010
-0.6021 SPEED TEST -0.1761
-0.3010 SPIRAL </s> -0.3010
-0.3010 START OF -0.2218
-0.3010 STATUS </s> -0.3010
-0.3010 STELLA </s> -0.3010
-0.3010 SWITCH TAB 0.0000
-0.6021 SYSTEM </s> -0.3010
-0.6021 SYSTEM STATUS 0.0000
-0.3010 TAB </s> -0.3010
-0.3010 TABS </s> -0.3010
-0.3010 TECHNOLOGY NEWS 0.0000
-0.3010 TELL ME -0.1761
-0.3010 TERMINAL </s> -0.3010
-0.6021 TEST </s> -0.3010
-0.6021 TEST NETWORK 0.0000
-0.3010 TEXT </s> -0.3010
-0.6021 THE DATE 0.0000
-0.6021 THE TIME -0.1963
-0.6021 THIS PAGE -0.1549
-0.6021 THIS TEXT 0.0000
-0.6690 TIME </s> -0.3010
-0.5441 TIME IS -0.0872
-0.3010 TOP OF -0.1249
-0.3010 TRACK </s> -0.3010
-0.7782 TYPE EMAIL -0.2553
-0.7782 TYPE MASTER 0.0000
-0.7782 TYPE PASSWORD 0.0000
-0.6021 UNDO </s> -0.3010
-0.6021 UNDO CLOSE -0.2553
-0.3010 UNMUTE AUDIO 0.0000
-0.3010 UP </s> -0.3010
-0.3010 UPDATE LANGUAGE 0.0000
-0.6021 VOLUME DOWN 0.0000
-0.6021 VOLUME UP 0.0000
-0.3010 WEB </s> -0.3010
-0.7270 WHAT DAY 0.0000
-0.9031 WHAT IS -0.2499
-0.7270 WHAT TIME 0.0000
-0.6021 WHEEL DOWN 0.0000
-0.6021 WHEEL UP 0.0000
-0.6021 WIFI DOWN 0.0000
-0.6021 WIFI UP 0.0000
-0.3010 WINDOW </s> -0.3010
-0.3010 WOOD </s> -0.3010
-0.3010 WORLD NEWS 0.0000
-0.3010 YOU? </s> -0.3010
-0.3010 YOUTUBE </s> -0.3010
-0.6021 ZOOM IN -0.2218
-0.6021 ZOOM OUT 0.0000

\3-grams:
-0.3010 <s> BACK FLIP
-0.6021 <s> BRIGHTNESS DOWN
-0.6021 <s> BRIGHTNESS UP
-0.3010 <s> BYE STELLA
-0.3010 <s> CLEAR TERMINAL
-1.2553 <s> CLOSE ASSISTANT
-1.2553 <s> CLOSE BROWSER
-1.2553 <s> CLOSE EDITOR
-1.2553 <s> CLOSE EMAIL
-1.2553 <s> CLOSE OTHER
-1.2553 <s> CLOSE STATUS
-1.2553 <s> CLOSE TAB
-1.2553 <s> CLOSE TERMINAL
-1.2553 <s> CLOSE WINDOW
-0.3010 <s> DAY IS
-0.3010 <s> EMAIL </s>
-0.3010 <s> END OF
-0.3010 <s> EXIT TERMINAL
-0.3010 <s> EYE PEE
-0.3010 <s> FIND IN
-0.3010 <s> FULL SCREEN
-0.3010 <s> GOOD BYE
-1.2553 <s> GOTO EDIT
-1.2553 <s> GOTO EMAIL
-1.2553 <s> GOTO FILE
-1.2553 <s> GOTO MAIL
-1.2553 <s> GOTO MUSIC
-1.2553 <s> GOTO PLAY
-1.2553 <s> GOTO SYSTEM
-1.2553 <s> GOTO TEXT
-1.2553 <s> GOTO WEB
-0.6021 <s> HELLO </s>
-0.6021 <s> HELLO STELLA
-0.3010 <s> HI STELLA
-0.6021 <s> HOW MUCH
-0.6021 <s> HOW OLD
-0.3010 <s> LEFT CLICK
-0.3010 <s> MAXIMIZE WINDOW
-0.3010 <s> MIDDLE CLICK
-0.3010 <s> MINIMIZE WINDOW
-0.3010 <s> MUSIC </s>
-0.6021 <s> MUTE AUDIO
-0.6021 <s> MUTE MICROPHONE
-0.6021 <s> NEW FILE
-0.6021 <s> NEW TAB
-0.6021 <s> NEXT TAB
-0.6021 <s> NEXT TRACK
-1.5051 <s> OPEN BOOKMARKS
-1.5051 <s> OPEN BROWSER
-1.5051 <s> OPEN CLOSED
-1.2041 <s> OPEN COMMANDS
-1.5051 <s> OPEN EDITOR
-1.5051 <s> OPEN EMAIL
-1.5051 <s> OPEN FILE
-1.5051 <s> OPEN FILES
-1.5051 <s> OPEN LAUNCHER
-1.5051 <s> OPEN NEW
-1.5051 <s> OPEN STATUS
-1.5051 <s> OPEN TAB
-1.5051 <s> OPEN TERMINAL
-1.5051 <s> OPEN WEB
-1.5051 <s> OPEN YOUTUBE
-0.7782 <s> PAGE BACK
-0.7782 <s> PAGE DOWN
-0.7782 <s> PAGE UP
-0.3010 <s> PAUSE MUSIC
-0.3010 <s> PLAY MUSIC
-1.5798 <s> PRESS BACKSPACE
-1.5798 <s> PRESS BREAK
-1.5798 <s> PRESS CANCEL
-1.5798 <s> PRESS COPY
-1.5798 <s> PRESS CUT
-1.5798 <s> PRESS DELETE
-1.5798 <s> PRESS DOWN
-1.5798 <s> PRESS END
-1.5798 <s> PRESS ENTER
-1.5798 <s> PRESS ESCAPE
-1.5798 <s> PRESS HOME
-1.5798 <s> PRESS LEFT
-1.5798 <s> PRESS PASTE
-1.5798 <s> PRESS REDO
-1.5798 <s> PRESS RETURN
-1.5798 <s> PRESS RIGHT
-1.5798 <s> PRESS TAB
-1.5798 <s> PRESS UNDO
-1.5798 <s> PRESS UP
-0.7782 <s> PREVIOUS TAB
-0.7782 <s> PREVIOUS TRACK
-0.7782 <s> PREVIOUS WINDOW
-1.0000 <s> READ FUTURE
-1.0000 <s> READ TECHNOLOGY
-0.6990 <s> READ THIS
-1.0000 <s> READ WORLD
-0.3010 <s> RELOAD PAGE
-0.3010 <s> RENAME FILE
-0.3010 <s> REPEAT AFTER
-0.3010 <s> REPLACE IN
-0.3010 <s> RESET STELLA
-0.3010 <s> RIGHT CLICK
-0.7782 <s> RUN DIAGNOSTICS
-0.7782 <s> RUN INXI
-0.7782 <s> RUN SPEED
-0.3010 <s> SAVE FILE
-0.6021 <s> SCROLL DOWN
-0.6021 <s> SCROLL UP
-0.6021 <s> SEARCH FILES
-0.6021 <s> SEARCH WEB
-0.6021 <s> SELECT ALL
-0.6021 <s> SELECT LINE
-0.7782 <s> SHOW DESKTOP
-0.7782 <s> SHOW SPIRAL
-0.7782 <s> SHOW WINDOW
-0.3010 <s> SHUFFLE MUSIC
-0.3010 <s> SING A
-0.3010 <s> START OF
-0.3010 <s> STATUS </s>
-0.3010 <s> STELLA </s>
-0.3010 <s> SWITCH TAB
-0.3010 <s> SYSTEM STATUS
-0.3010 <s> TELL ME
-0.3010 <s> TEST NETWORK
-0.7782 <s> TIME </s>
-0.4771 <s> TIME IS
-0.3010 <s> TOP OF
-0.7782 <s> TYPE EMAIL
-0.7782 <s> TYPE MASTER
-0.7782 <s> TYPE PASSWORD
-0.3010 <s> UNDO CLOSE
-0.3010 <s> UNMUTE AUDIO
-0.3010 <s> UPDATE LANGUAGE
-0.6021 <s> VOLUME DOWN
-0.6021 <s> VOLUME UP
-0.3010 <s> WEB </s>
-0.7270 <s> WHAT DAY
-0.9031 <s> WHAT IS
-0.7270 <s> WHAT TIME
-0.6021 <s> WHEEL DOWN
-0.6021 <s> WHEEL UP
-0.6021 <s> WIFI DOWN
-0.6021 <s> WIFI UP
-0.6021 <s> ZOOM IN
-0.6021 <s> ZOOM OUT
-0.3010 A JOKE </s>
-0.3010 A SONG </s>
-0.3010 AFTER ME </s>
-0.3010 ARE YOU? </s>
-0.3010 BACK FLIP </s>
-0.3010 BRIGHTNESS DOWN </s>
-0.3010 BRIGHTNESS UP </s>
-0.3010 BYE STELLA </s>
-0.3010 CLEAR TERMINAL </s>
-0.3010 CLOSE ASSISTANT </s>
-0.3010 CLOSE BROWSER </s>
-0.3010 CLOSE EDITOR </s>
-0.3010 CLOSE EMAIL </s>
-0.3010 CLOSE OTHER TABS
-0.3010 CLOSE STATUS </s>
-0.3010 CLOSE TAB </s>
-0.3010 CLOSE TERMINAL </s>
-0.3010 CLOSE WINDOW </s>
-0.3010 CLOSED TAB </s>
-0.3010 COMMANDS FILE </s>
-0.7782 DAY IS </s>
-0.4771 DAY IS IT
-0.3010 EMAIL ADDRESS </s>
-0.7782 END OF FILE
-0.7782 END OF LINE
-0.7782 END OF PAGE
-0.3010 EXIT TERMINAL </s>
-0.3010 EYE PEE ADDRESS
-0.3010 FIND IN FILE
-0.3010 FULL SCREEN </s>
-0.3010 FUTURE NEWS </s>
-0.3010 GOOD BYE STELLA
-0.3010 GOTO EDIT </s>
-0.3010 GOTO EMAIL </s>
-0.3010 GOTO FILE </s>
-0.3010 GOTO MAIL </s>
-0.3010 GOTO MUSIC </s>
-0.3010 GOTO PLAY </s>
-0.3010 GOTO SYSTEM </s>
-0.3010 GOTO TEXT </s>
-0.3010 GOTO WEB </s>
-0.3010 HELLO STELLA </s>
-0.3010 HI STELLA </s>
-0.3010 HOW MUCH WOOD
-0.3010 HOW OLD ARE
-0.3010 IN FILE </s>
-0.3010 IS IT </s>
-0.6021 IS THE DATE
-0.6021 IS THE TIME
-0.3010 LANGUAGE MODEL </s>
-0.3010 LEFT CLICK </s>
-0.3010 MASTER PASSWORD </s>
-0.3010 MAXIMIZE WINDOW </s>
-0.3010 ME A JOKE
-0.3010 MIDDLE CLICK </s>
-0.3010 MINIMIZE WINDOW </s>
-0.3010 MUCH WOOD </s>
-0.3010 MUTE AUDIO </s>
-0.3010 MUTE MICROPHONE </s>
-0.3010 NETWORK SPEED </s>
-0.3010 NEW FILE </s>
-0.3010 NEW TAB </s>
-0.3010 NEXT TAB </s>
-0.3010 NEXT TRACK </s>
-0.3010 OF FILE </s>
-0.3010 OF LINE </s>
-0.3010 OF PAGE </s>
-0.3010 OLD ARE YOU?
-0.3010 OPEN BOOKMARKS </s>
-0.3010 OPEN BROWSER </s>
-0.3010 OPEN CLOSED TAB
-0.6021 OPEN COMMANDS </s>
-0.6021 OPEN COMMANDS FILE
-0.3010 OPEN EDITOR </s>
-0.3010 OPEN EMAIL </s>
-0.3010 OPEN FILE </s>
-0.3010 OPEN FILES </s>
-0.3010 OPEN LAUNCHER </s>
-0.3010 OPEN NEW TAB
-0.3010 OPEN STATUS </s>
-0.3010 OPEN TAB </s>
-0.3010 OPEN TERMINAL </s>
-0.3010 OPEN WEB </s>
-0.3010 OPEN YOUTUBE </s>
-0.3010 OTHER TABS </s>
-0.3010 PAGE BACK </s>
-0.3010 PAGE DOWN </s>
-0.3010 PAGE UP </s>
-0.3010 PAUSE MUSIC </s>
-0.3010 PEE ADDRESS </s>
-0.3010 PLAY MUSIC </s>
-0.3010 PRESS BACKSPACE </s>
-0.3010 PRESS BREAK </s>
-0.3010 PRESS CANCEL </s>
-0.3010 PRESS COPY </s>
-0.3010 PRESS CUT </s>
-0.3010 PRESS DELETE </s>
-0.3010 PRESS DOWN </s>
-0.3010 PRESS END </s>
-0.3010 PRESS ENTER </s>
-0.3010 PRESS ESCAPE </s>
-0.3010 PRESS HOME </s>
-0.3010 PRESS LEFT </s>
-0.3010 PRESS PASTE </s>
-0.3010 PRESS REDO </s>
-0.3010 PRESS RETURN </s>
-0.3010 PRESS RIGHT </s>
-0.3010 PRESS TAB </s>
-0.3010 PRESS UNDO </s>
-0.3010 PRESS UP </s>
-0.3010 PREVIOUS TAB </s>
-0.3010 PREVIOUS TRACK </s>
-0.3010 PREVIOUS WINDOW </s>
-0.3010 READ FUTURE NEWS
-0.3010 READ TECHNOLOGY NEWS
-0.6021 READ THIS PAGE
-0.6021 READ THIS TEXT
-0.3010 READ WORLD NEWS
-0.3010 RELOAD PAGE </s>
-0.3010 RENAME FILE </s>
-0.3010 REPEAT AFTER ME
-0.3010 REPLACE IN FILE
-0.3010 RESET STELLA </s>
-0.3010 RIGHT CLICK </s>
-0.3010 RUN DIAGNOSTICS </s>
-0.3010 RUN INXI </s>
-0.3010 RUN SPEED TEST
-0.3010 SAVE FILE </s>
-0.3010 SCROLL DOWN </s>
-0.3010 SCROLL UP </s>
-0.3010 SEARCH FILES </s>
-0.3010 SEARCH WEB </s>
-0.3010 SELECT ALL </s>
-0.3010 SELECT LINE </s>
-0.3010 SHOW DESKTOP </s>
-0.3010 SHOW SPIRAL </s>
-0.3010 SHOW WINDOW </s>
-0.3010 SHUFFLE MUSIC </s>
-0.3010 SING A SONG
-0.3010 SPEED TEST </s>
-0.3010 START OF LINE
-0.3010 SWITCH TAB </s>
-0.3010 SYSTEM STATUS </s>
-0.3010 TECHNOLOGY NEWS </s>
-0.3010 TELL ME A
-0.3010 TEST NETWORK SPEED
-0.3010 THE DATE </s>
-0.3010 THE TIME </s>
-0.3010 THIS PAGE </s>
-0.3010 THIS TEXT </s>
-0.6021 TIME IS </s>
-0.6021 TIME IS IT
-0.6021 TOP OF FILE
-0.6021 TOP OF PAGE
-0.3010 TYPE EMAIL ADDRESS
-0.3010 TYPE MASTER PASSWORD
-0.3010 TYPE PASSWORD </s>
-0.3010 UNDO CLOSE TAB
-0.3010 UNMUTE AUDIO </s>
-0.3010 UPDATE LANGUAGE MODEL
-0.3010 VOLUME DOWN </s>
-0.3010 VOLUME UP </s>
-0.7782 WHAT DAY </s>
-0.4771 WHAT DAY IS
-0.3010 WHAT IS THE
-0.7782 WHAT TIME </s>
-0.4771 WHAT TIME IS
-0.3010 WHEEL DOWN </s>
-0.3010 WHEEL UP </s>
-0.3010 WIFI DOWN </s>
-0.3010 WIFI UP </s>
-0.3010 WORLD NEWS </s>
-0.3010 ZOOM IN </s>
-0.3010 ZOOM OUT </s>

\end\
